/*
 * ESPectre - Gesture Tiny-MLP Weights
 *
 * Auto-generated tiny MLP weights for gesture classification.
 * Architecture: [17, 24, 12, 3]
 * Trained: 2026-03-14 16:18:22
 * Seed: 13
 *
 * This file is auto-generated by 12_train_gesture_model.py.
 * DO NOT EDIT - your changes will be overwritten!
 *
 * Author: Francesco Pace <francesco.pace@gmail.com>
 * License: GPLv3
 */

#pragma once

#include <cstdint>

namespace esphome {
namespace espectre {

constexpr int GESTURE_NUM_CLASSES = 3;
constexpr int GESTURE_NUM_FEATURES = 17;
constexpr float GESTURE_REJECT_CONFIDENCE = 0.20000000f;
constexpr float GESTURE_REJECT_MARGIN = 0.00000000f;

constexpr const char* GESTURE_CLASS_LABELS[3] = {
    "wave",
    "circle_cw",
    "no_gesture",
};
constexpr uint8_t GESTURE_FEATURE_IDS[17] = {0, 1, 2, 3, 4, 5, 6, 7, 8, 9, 10, 11, 12, 13, 14, 15, 16};

constexpr float GESTURE_FEATURE_MEAN[17] = {0.99140625f, 0.46549278f, 2.08579817f, -0.06901445f, 1.10302935f, 1.23906250f, 0.05642465f, 0.67048196f, 1.44334885f, 5.05560409f, 4.74243477f, -0.31316937f, 0.66983026f, 0.55166610f, 1.82829933f, 0.04584703f, 0.97361824f};
constexpr float GESTURE_FEATURE_SCALE[17] = {0.03755693f, 0.23739261f, 0.68910886f, 0.47478523f, 0.53425361f, 1.08290945f, 0.08665493f, 0.43514757f, 0.95820562f, 3.23454978f, 3.14991694f, 1.01731396f, 0.46754359f, 0.27068916f, 0.10109739f, 0.07225694f, 0.03631997f};

constexpr int GESTURE_MLP_NUM_LAYERS = 4;
constexpr int GESTURE_MLP_MAX_WIDTH = 24;
constexpr int GESTURE_MLP_LAYER_SIZES[4] = {17, 24, 12, 3};
constexpr int GESTURE_MLP_WEIGHT_OFFSETS[4] = {0, 408, 696, 732};
constexpr int GESTURE_MLP_BIAS_OFFSETS[4] = {0, 24, 36, 39};
constexpr float GESTURE_MLP_WEIGHTS[732] = {0.40978083f, -0.27901876f, 0.21563186f, 0.39392039f, -0.67021239f, 0.04847016f, -0.36792403f, 0.44884562f, 0.03426157f, 0.24704123f, 0.14356880f, -0.37321240f, 0.03898678f, 0.06589818f, -0.53996438f, -0.37638250f, -0.06820011f, -0.35003477f, -0.33892283f, -0.46654025f, -0.10989884f, -0.28277364f, 0.59744555f, -0.26333731f, -0.28085932f, -0.10722648f, 0.00244568f, 0.20600110f, 0.14618257f, -0.25715461f, 0.53103268f, -0.24602537f, -0.10231592f, 0.17102335f, 0.51344973f, 0.18146609f, 0.26754507f, -0.12679012f, -0.15903731f, 0.00745256f, -0.06428627f, 0.33205143f, -0.22648802f, -0.05948573f, 0.33405972f, -0.54547548f, -0.26270106f, 0.55494541f, -0.60442555f, -0.53829807f, 0.66054255f, 0.17454889f, 0.16744535f, 0.29197291f, 0.16638944f, -0.14159216f, -0.65064251f, -0.03714272f, 0.27892399f, 0.14329675f, -0.55219531f, -0.54135233f, 0.00218844f, 0.17568110f, 0.12769316f, 0.35613298f, 0.10832275f, -0.33061701f, 0.62429577f, -0.18823805f, -0.46353242f, -0.09064333f, 0.06460817f, -0.55663741f, -0.21468560f, -0.23431075f, 0.35806772f, 0.05891447f, -0.65344644f, -0.28935897f, -0.61976886f, -0.38490281f, -0.30981991f, -0.04415978f, -0.08022662f, -0.03730273f, 0.33077797f, -0.29321650f, -0.05898855f, 0.51632208f, 0.23640734f, -0.17822123f, 0.52703911f, 0.35079345f, 0.32521543f, 0.07905142f, -0.17910393f, 0.02327367f, 0.33006671f, -0.32286382f, 0.27672890f, -0.30204028f, 0.10966343f, 0.02293724f, -0.41176018f, -0.14301179f, -0.32487574f, 0.34022999f, 0.47365031f, -0.21233596f, 0.07982913f, 0.31700096f, 0.31235221f, 0.60632426f, 0.03472348f, 0.41096345f, 0.26628777f, -0.10938242f, -0.11680969f, 0.29082099f, -0.28752476f, -0.52622426f, 0.08500014f, -0.54950625f, -0.50568765f, -0.22981973f, 0.36235610f, 0.02400731f, 0.37858337f, 0.47101074f, -0.17852820f, 0.47349000f, 0.57231289f, 0.26462179f, -0.16445750f, 0.07236332f, -0.00076852f, 0.02173989f, 0.62601006f, 0.25288826f, 0.26555213f, -0.45198470f, -0.15790769f, 0.19756788f, 0.48536900f, -0.51222891f, -0.87611830f, -0.20005928f, 0.28456634f, -0.01357036f, 0.04130562f, -0.25309762f, 0.01893441f, 0.34762606f, 0.07346447f, 0.09136169f, 0.03073353f, -0.49565586f, 0.26106039f, 0.14275721f, -0.33384892f, -0.42317140f, -0.00550443f, -0.44836357f, 0.68554127f, -0.51422215f, 0.21426721f, 0.63279063f, -0.33454159f, -0.03928282f, -0.42706448f, 0.04557736f, -0.50368720f, -0.22238520f, 0.09359938f, 0.33549324f, 0.39462352f, -0.70252901f, -0.48494267f, 0.09871539f, 0.00883957f, 0.17582390f, 0.42299998f, 0.38355103f, -0.20034380f, 0.16394667f, 0.00905727f, 0.12342706f, 0.66084296f, 0.17729534f, 0.51188374f, -0.56404459f, -0.67045403f, -0.28207567f, 0.12544937f, -0.24840575f, -0.14542952f, -0.16787878f, -0.15731514f, -0.39981252f, -0.07233664f, -0.55037850f, -0.20560579f, -0.01959891f, -0.42895421f, -0.29220703f, -0.22653878f, -0.13820897f, -0.25968173f, 0.04247488f, 0.09955803f, -0.51142025f, -0.62622571f, 0.07463922f, -0.35021913f, -0.48329198f, 0.45125645f, 0.26617375f, 0.84117073f, -0.07290515f, -0.16263142f, 0.28804272f, -0.17488012f, -0.31022957f, -0.22926535f, -0.12709089f, -0.28495926f, -0.02853875f, 0.46099126f, 0.76080775f, 0.11933093f, -0.30874062f, 0.34963486f, 0.26866052f, 0.11434767f, -0.29602560f, 0.04257786f, -0.01093812f, -0.16339967f, 0.28950325f, 0.57990402f, 0.07920781f, 0.00405609f, 0.09102067f, -0.45642400f, 0.39558637f, -0.22794053f, -0.24124128f, -0.18535875f, -0.32042226f, 0.28295740f, 0.29193288f, -0.12074946f, 0.11101383f, 0.04038985f, 0.45472196f, 0.17057236f, 0.25582311f, 0.18254848f, -0.46495768f, 0.35300744f, -0.71444821f, -0.30718383f, -0.02011292f, -0.10005602f, 0.48194346f, 0.35526267f, -0.06375359f, -0.17526112f, 0.19021642f, -0.17258805f, 0.00282564f, -0.11743383f, -0.20474708f, -0.06806543f, 0.32229704f, 0.19510807f, 0.32331818f, -0.07340457f, -0.32948858f, 0.39060986f, -0.39884406f, -0.44036034f, -0.11168143f, -0.60075146f, -0.77252197f, -0.03387963f, -0.12309322f, 0.57841945f, -0.03995413f, 0.01745654f, -0.45957375f, -0.40411946f, -0.03643901f, -0.15143628f, 0.39175522f, 0.13187161f, 0.48740581f, 0.00313227f, 0.04522352f, -0.63820809f, -0.60416836f, 0.31913230f, -0.61205178f, 0.20299265f, -0.05014608f, -0.46221477f, 0.46402931f, -0.32361850f, 0.40754804f, -0.71829808f, -0.16998824f, 0.11822549f, 0.45438460f, 0.04792392f, 0.06786260f, -0.40713084f, 0.20739770f, 0.06394736f, 0.20159607f, 0.46292013f, 0.32548925f, 0.57575309f, -0.04066592f, -0.42638221f, 0.09029706f, -0.10163001f, -0.52397996f, 0.66909444f, 0.87454021f, 0.34141979f, 0.39139211f, -0.60855365f, -0.80167550f, 0.24346946f, -0.57122833f, 0.25888544f, -0.25469348f, -0.32806283f, 0.18154970f, 0.60233527f, 0.09841105f, -0.11565748f, -0.16798967f, -0.20083308f, -0.58911991f, 0.60188818f, -0.64187157f, -0.65014106f, 0.17261417f, -0.21858694f, -0.75608176f, -0.75150955f, -0.38554707f, 0.07679113f, 0.41125298f, 0.51499909f, -0.08800890f, -0.47035605f, 0.57095319f, -0.59629500f, 0.26271683f, 0.18375385f, 0.22248809f, 0.38637063f, 0.43233573f, 0.27501503f, 0.95573121f, 0.13124910f, -0.15222934f, -0.81693089f, -0.14383352f, -0.73882014f, -0.14847410f, -0.23253781f, -0.34877649f, -0.19868915f, 0.10004560f, 0.14174441f, 0.42790312f, 0.10708988f, -0.50870973f, -0.63810843f, -0.10210917f, -0.11497927f, -0.19070545f, 0.00415323f, -0.11386873f, 0.36822265f, 0.45494661f, -0.39278400f, 0.43808335f, 0.11497153f, -0.49178386f, -0.19819224f, -0.28642133f, -0.62181681f, -0.28838468f, 0.08634204f, 0.42757288f, 0.28500322f, 0.42628184f, -0.57798767f, 0.30291426f, 0.14313161f, -0.15480858f, 0.33688125f, 0.12792775f, -0.33330372f, 0.28582484f, -0.70128953f, 0.34932807f, -0.55517596f, -0.28008190f, -0.03576653f, 0.15384278f, 0.38638967f, 0.17395151f, 0.61839420f, -0.01450798f, 0.56229734f, 0.29348886f, 0.75127167f, 0.00669331f, -0.23149341f, 0.16903900f, -0.14867498f, -0.46271566f, -0.20629972f, -0.24724992f, 0.63614279f, 0.01109861f, -0.34210044f, 0.53988063f, -0.17158377f, 0.66783744f, -0.10455515f, -0.35053802f, 0.47966474f, -0.21357711f, -0.13752387f, 0.31673148f, 0.71189851f, 0.44916585f, 0.46716559f, -0.25237957f, -0.00914855f, 0.32807493f, -0.73820132f, -0.16377789f, -0.02414398f, -0.20358615f, -0.21957375f, -0.48543441f, 0.34143865f, -0.47675934f, 0.48961821f, -0.16583931f, -0.60554951f, -0.73733252f, 0.20003293f, 0.08184685f, 0.48677757f, 0.03321303f, -0.65690136f, 0.31014669f, -0.44452235f, -0.07400367f, 0.26120815f, 0.31348068f, -0.30774626f, -0.09043507f, 0.07642242f, 0.73647642f, 0.60368627f, -0.58890760f, -0.18442287f, -0.44023469f, 0.20511006f, 0.45816559f, -0.26737052f, 0.42685273f, -0.43147373f, 0.63596499f, -0.47539443f, -0.37692901f, 0.47051963f, 0.40002817f, 0.44247830f, 0.10159866f, 0.39661053f, -0.02935001f, 0.67878842f, 0.31909889f, 0.57160717f, -0.25525320f, 0.31658190f, 0.11362845f, 0.36864418f, -0.57564068f, -0.22109738f, -0.27790239f, 0.15404709f, 0.02496747f, 0.24860443f, 0.02995028f, -0.09192267f, 0.51926631f, 0.13378292f, 0.33624542f, -0.60368466f, -0.54471880f, 0.59884197f, 0.26573801f, -0.61930066f, 0.24346864f, -0.04426007f, 0.25150982f, 0.11966182f, -0.20610122f, -0.49460685f, -0.01602758f, 0.78458077f, 0.21250360f, -0.35570073f, -0.12681104f, -0.29658011f, 0.13840261f, 0.25876012f, 0.23574571f, 0.20390601f, 0.31919271f, -0.11386776f, 0.27629137f, -0.27592075f, -0.37308761f, -0.02386658f, 0.19189902f, 0.23098160f, -0.15445514f, -0.43836439f, 0.33794776f, -0.39368749f, -0.41503277f, 0.28877598f, -0.15900509f, 0.10004111f, -0.43347731f, -0.09437329f, -0.29512370f, -0.16635466f, -0.25849545f, 0.63012743f, -0.43667099f, 0.54914123f, -0.25158420f, 0.17713082f, 0.33032545f, 0.11614405f, 0.67572129f, -0.77813566f, 0.74595499f, -0.60733074f, 0.33341071f, -0.46480611f, -0.00749442f, -0.30033925f, 0.57186246f, 0.26314411f, 0.22994682f, -0.15063243f, 0.70689976f, 0.17376933f, -0.10380311f, -0.49331439f, 0.41708359f, -0.02759027f, -0.85741699f, -0.36967143f, -0.48448643f, 0.23824124f, 0.27052873f, -0.11657786f, 0.28393605f, 0.03142382f, -0.33354864f, -0.14505720f, 0.22997406f, -0.06538916f, -0.10186349f, -0.14387122f, 0.37692901f, 0.85306966f, 0.49980241f, -0.16231792f, -1.03896630f, -0.08340777f, -0.62726408f, 0.27297777f, 0.55698574f, -0.43989980f, 0.03019806f, -0.50133270f, 0.89856195f, 0.31992140f, -0.01373110f, 0.31498593f, -0.45298138f, 0.28259549f, 0.07899656f, 0.79648823f, 0.40568545f, 0.38297638f, -0.13273343f, -0.04151664f, -0.02293449f, -0.48003414f, -0.91403300f, 0.17837247f, -0.31091323f, 0.65229386f, 0.14645851f, 0.79177713f, -0.31226787f, 0.28717127f, 0.75284648f, 0.41663828f, 0.00001012f, -0.59855253f, -0.35820222f, -0.66325027f, 0.00861118f, 0.48724461f, 0.19488566f, 0.37147945f, 0.27999991f, -0.35331994f, -0.15985425f, 0.30743769f, 0.90075642f, -0.62561792f, -0.48193842f, -0.85535556f, 0.28909001f, -0.41244537f, 0.76366538f, 0.41001013f, 0.43355763f, -0.53624493f, -0.21854925f, -0.71483433f, 0.51625711f, -0.78456849f, 0.04223227f, -0.07461405f, 0.76503623f, 0.46818981f, 0.54723692f, 0.42297214f, -0.72163147f, 0.71855879f, 0.56548870f, 0.53179812f, 0.24532811f, 0.01544467f, 0.66313380f, 0.74229258f, -0.65657258f, -0.04579691f, -0.57444531f, 0.55115515f, 0.43747926f, 0.18592642f, -0.25155130f, 0.66523659f, -0.47592592f, 0.33268419f, 0.17021820f, -0.49182919f, 0.32460400f, -0.05646035f, 0.09501925f, 0.31492198f, 0.58648938f, 0.29661775f, -0.73458576f, 0.60501862f, 0.35106522f, 0.19429737f, 0.53867102f, 0.04521028f, 0.45918140f, 0.69702178f, -0.67038953f, -0.55548555f, -0.06066082f, -0.42411733f, -1.00025034f, 0.90033805f, 0.15369049f, -0.46609652f, -0.04534175f, 0.77041835f, 0.72231174f, -1.10026801f, -1.04332101f, 0.28495085f, 0.70042068f, -0.51342249f, 0.06032533f, -0.00492483f, -0.65555912f, 0.48335034f, 0.38887042f, 0.25309557f, -0.65894580f, 0.54294276f, 0.81020641f, -0.94508159f, 0.55077189f, 0.73945540f, 0.89638650f, 0.03838783f, 0.65039051f, 0.75311506f, -0.54061246f, -0.87556356f, -0.46556097f, 0.69968134f, -0.49690923f, 0.52955461f, -0.92327285f};
constexpr float GESTURE_MLP_BIASES[39] = {0.41997007f, -0.20442308f, 0.04369819f, -0.12819494f, 0.36816168f, 0.02109164f, 0.11120343f, 0.21189497f, 0.34750062f, 0.41779256f, 0.01660794f, -0.06556552f, 0.51178914f, -0.15447824f, 0.49299300f, 0.59133261f, -0.00183926f, -0.21095149f, 0.22679366f, -0.18509904f, 0.31920299f, 0.45239687f, 0.05988383f, 0.13921617f, 0.19448355f, -0.05763367f, 0.40443763f, -0.29577559f, -0.41439778f, 0.07506378f, -0.12186991f, 0.21354307f, -0.07425537f, 0.14505954f, -0.03638465f, -0.16491868f, -0.22022796f, -0.05454602f, 0.38491008f};

}  // namespace espectre
}  // namespace esphome
